0.0757 -0.0340 0.0417 -0.0537 0.0180 -0.0263 -0.0966 -0.0907 -0.0362 
-0.0913 0.1361 -0.1222 0.1237 0.0383 -0.0843 -0.0296 0.1056 0.1263 
-0.0202 0.0263 -0.0303 0.0299 -0.0308 -0.1061 -0.0365 -0.1020 -0.1348 

-0.0281 0.0142 -0.0114 -0.1006 -0.0443 0.0570 0.0006 0.0278 -0.0694 
-0.0519 -0.0434 0.1031 -0.0926 0.0994 -0.0616 0.0116 0.0912 -0.0275 
-0.0485 0.0001 0.0343 -0.0141 0.0663 0.0117 -0.0636 -0.0552 0.0493 

0.0866 -0.1351 0.0283 0.1156 -0.1367 0.1028 0.0073 0.0651 0.1266 
0.0156 -0.0666 0.0577 -0.0499 -0.0088 0.0362 -0.0383 -0.0566 0.0611 
-0.0826 -0.0926 -0.0857 0.0094 -0.0565 0.0766 -0.0692 -0.0660 -0.0521 

-0.0046 -0.0617 0.1263 0.0152 -0.0693 -0.1343 0.0615 0.1342 0.0379 
-0.0526 0.1349 -0.1292 0.1128 -0.0570 -0.0728 -0.0535 0.0870 0.0014 
-0.1142 0.0837 -0.1317 -0.0050 -0.0857 -0.0454 0.1146 -0.0209 0.0703 

-0.0304 0.0009 0.0456 -0.1069 0.1379 -0.0958 -0.0612 0.0062 -0.0628 
0.0002 0.0588 0.1029 0.1206 0.0912 0.1372 0.1348 -0.0646 -0.0826 
-0.0449 0.0345 -0.0331 -0.0562 -0.0042 -0.0133 -0.0428 -0.0702 0.1351 

0.0356 0.0774 -0.0360 0.0092 -0.1094 0.1116 -0.1222 -0.0716 0.0780 
-0.1143 -0.1225 0.0950 -0.0837 0.0513 0.0682 -0.0919 0.0868 0.0993 
-0.0492 -0.0077 -0.1231 0.0498 0.1081 -0.0173 0.0669 -0.0764 -0.0294 

-0.0858 0.0547 0.0786 0.0666 -0.1372 -0.0275 -0.0295 0.0507 -0.0728 
-0.0726 -0.0926 -0.0047 -0.0252 0.1141 0.0503 0.1326 0.0994 0.0330 
-0.0191 0.0096 0.0138 0.0358 0.0892 -0.0708 -0.0835 0.1244 -0.0276 

0.0335 -0.0301 0.0047 -0.0984 -0.0983 0.1291 -0.0134 -0.1312 -0.1318 
-0.0003 -0.0537 0.0542 -0.0143 -0.0242 -0.0825 -0.0100 -0.0534 -0.1136 
0.0048 0.0881 0.0247 -0.1222 0.0837 0.0476 0.0271 0.0293 -0.0446 

-0.1156 0.0780 -0.0224 -0.1254 -0.0138 -0.1171 -0.0476 0.0807 0.0259 
0.0178 -0.0361 -0.1119 0.0540 -0.0058 0.0106 0.0539 -0.1246 -0.0989 
0.0728 0.0920 0.1242 0.0480 -0.1130 0.0063 -0.1157 -0.1329 -0.1109 

-0.0262 0.1092 -0.0256 0.1255 0.0101 -0.1178 0.0782 -0.0279 -0.0396 
0.0205 0.0977 0.1030 0.0029 -0.0347 0.0579 0.1234 -0.0058 0.0078 
0.1009 0.0708 0.0762 -0.0285 0.1245 0.0530 0.0587 0.1253 -0.0161 

0.1120 0.1275 -0.1253 -0.0338 0.0127 -0.0041 0.0783 -0.1050 -0.0732 
-0.0666 -0.0369 -0.1263 0.0596 0.0366 0.0421 0.1224 0.0623 -0.0035 
0.0119 0.1359 -0.0284 0.0067 -0.1191 -0.1355 -0.0931 0.0302 -0.0446 

0.1304 -0.1202 -0.1156 0.1115 -0.0308 0.1016 0.1317 -0.0591 0.1122 
0.0792 0.0973 -0.0587 0.0146 0.0119 0.0234 -0.0292 0.0104 -0.0703 
-0.0116 -0.1033 0.0571 0.0116 -0.0103 0.0531 0.0747 0.0098 0.0540 

-0.1175 0.0418 0.1104 0.1078 -0.0810 0.1264 0.1141 0.1291 -0.0508 
-0.0071 0.0344 0.1207 0.0512 0.0322 0.0646 -0.1340 0.0168 0.1083 
0.0737 -0.1315 -0.0586 0.0975 0.0601 0.1150 0.0807 -0.0614 -0.0757 

0.0045 0.0401 -0.0358 -0.1283 0.1129 0.1291 -0.0543 0.0446 0.0313 
0.0584 -0.0546 -0.1083 0.1205 -0.0551 0.0239 -0.0830 0.0591 -0.0276 
-0.0197 0.0706 0.0751 0.0659 -0.0961 0.0237 -0.0079 -0.0778 -0.0463 

-0.0864 0.1282 0.0507 -0.1143 0.0232 -0.1333 -0.0035 0.0330 -0.1062 
-0.0800 0.0176 -0.0390 0.1102 -0.0536 -0.0807 0.0867 0.0061 -0.0161 
0.0856 -0.0051 0.0465 -0.0970 0.0060 0.0090 0.0941 -0.0998 0.1375 

-0.0792 0.0627 -0.0922 0.1004 0.0488 0.0181 0.0208 -0.0253 -0.0280 
0.0626 -0.0623 0.0269 0.1167 -0.0840 -0.1119 0.1137 -0.0636 -0.0425 
-0.0024 -0.1030 -0.0760 -0.0435 0.0352 0.0896 0.0625 0.0809 0.0439 

-0.0678 0.1163 0.0516 -0.0408 0.0527 0.0075 -0.0640 -0.1165 0.0111 
0.0121 -0.1181 0.0880 -0.0809 -0.0370 -0.1224 -0.0477 0.1265 0.0187 
-0.0558 0.1265 -0.1030 0.1332 -0.1133 -0.0901 0.0378 0.1252 0.0003 

0.0045 0.1377 -0.0552 0.0020 -0.0481 -0.1088 -0.0001 0.0039 0.0853 
-0.0146 0.0053 -0.0396 -0.0102 -0.0927 0.0708 0.1376 0.0785 -0.0087 
-0.0414 0.0380 0.0038 -0.0020 0.1244 0.1168 -0.0134 0.0461 0.0212 

-0.0009 0.0406 0.0658 0.0664 -0.0290 0.0534 -0.0945 -0.0519 0.0605 
-0.0620 -0.1103 0.0522 -0.0961 -0.0049 0.1224 -0.0622 0.0181 -0.0561 
0.1102 0.0187 -0.1352 0.0052 0.1344 0.0702 -0.0273 0.1373 0.0585 

-0.0706 -0.0087 -0.0557 0.0803 -0.1048 0.0521 -0.1211 0.1332 -0.1266 
0.0210 0.1101 0.0764 0.0688 -0.0225 0.1250 -0.0996 0.1350 -0.0372 
0.0870 -0.0915 -0.0465 0.0545 -0.0890 0.1293 -0.0704 -0.1324 -0.1218 

-0.1063 0.0274 0.1221 -0.1350 -0.0178 -0.1052 -0.0915 0.1056 0.0399 
0.0250 -0.1086 -0.0964 -0.0753 -0.1108 0.0436 -0.1214 0.1022 0.0032 
-0.1295 0.0984 -0.0562 -0.1182 -0.0328 -0.1019 -0.0202 -0.0835 0.0146 

-0.0856 -0.0082 -0.0750 -0.0099 -0.1361 -0.0195 0.0278 0.0129 -0.0751 
0.0775 -0.0972 -0.1024 -0.0174 0.1278 0.0545 -0.1243 -0.1193 -0.0223 
0.0034 0.0514 -0.0391 -0.1244 0.0880 -0.0276 0.0419 0.1070 0.0695 

0.0759 -0.0982 0.1222 -0.0266 -0.1353 0.1361 0.0469 0.0971 0.0374 
-0.1251 -0.0067 -0.1012 0.0509 0.0581 0.0052 -0.1153 0.1335 0.1156 
0.0084 0.1279 -0.0087 -0.0563 0.0900 0.0516 0.1370 -0.0804 -0.0236 

0.0737 0.0697 -0.0984 -0.1366 0.0706 0.0482 -0.0662 -0.0896 -0.0535 
-0.0199 0.0860 0.0853 0.0563 -0.0703 0.1237 0.1033 0.0750 -0.0186 
-0.1274 0.0390 0.0034 0.0515 -0.0239 0.0959 0.0533 0.1333 -0.0210 

-0.0174 -0.1120 -0.0395 -0.0875 -0.0697 0.0417 0.0603 0.0892 0.1136 
0.0377 0.0029 0.0375 0.0753 -0.0884 -0.1305 -0.0925 -0.0509 0.0815 
0.0445 -0.0143 0.0646 0.0611 -0.0476 0.0184 -0.0244 -0.0605 -0.0974 

0.0584 0.0167 0.0556 0.0748 -0.0918 -0.0212 0.1054 0.0728 0.0771 
0.1189 -0.1235 -0.0187 -0.1226 -0.0751 -0.1275 -0.0892 -0.0646 -0.0164 
0.1302 -0.0535 -0.0607 0.1295 -0.0388 0.0752 0.0160 -0.1045 0.1090 

0.0076 0.0563 0.1233 0.0706 0.0949 0.0884 0.0204 -0.0741 -0.1173 
-0.0985 -0.0994 0.0647 0.0129 0.0891 -0.0339 -0.1307 -0.0330 0.1181 
-0.0602 0.0442 0.0188 -0.0399 -0.1250 -0.0600 0.1141 -0.0277 -0.1041 

-0.0416 0.0696 -0.1263 0.0080 -0.0662 -0.1032 -0.0033 -0.1068 -0.0791 
-0.0964 0.0740 0.0700 0.0351 0.0869 -0.0014 0.0301 0.1081 0.0068 
0.1273 -0.1153 -0.0335 -0.0499 -0.1193 -0.1023 0.0819 -0.0093 -0.0742 

0.1014 -0.1040 -0.0707 0.0080 0.0949 -0.0438 0.0682 -0.0103 -0.0941 
0.0269 0.1044 0.0647 -0.0594 -0.1366 0.0696 0.1355 -0.0877 -0.0594 
0.0389 -0.0076 0.0929 0.1100 0.0454 0.0266 0.0862 -0.0605 -0.0380 

0.1100 0.0422 -0.0006 0.1138 0.0222 0.0136 -0.1258 0.0846 0.1188 
-0.0017 0.0621 0.1089 -0.0085 -0.0717 -0.1305 -0.0596 -0.0421 -0.0328 
-0.0701 0.0036 0.0438 -0.0437 0.0073 0.0093 -0.1342 0.1298 0.0489 

0.0703 -0.0426 -0.1154 0.0438 0.1057 0.1045 0.1357 0.0519 -0.0927 
0.0662 -0.0978 -0.1303 0.1367 -0.1091 0.0490 0.0417 -0.0573 -0.0653 
-0.0207 0.0728 -0.1149 -0.0225 -0.0972 0.0674 -0.0212 0.1072 0.0316 

0.0647 -0.0656 -0.0604 -0.0743 -0.0189 0.0309 0.1125 -0.0174 -0.1092 
0.0093 0.0403 0.0539 -0.1318 -0.0624 0.1106 -0.0459 -0.1359 -0.1320 
-0.1229 -0.0021 0.0730 -0.0248 -0.0689 0.0674 -0.0087 -0.1360 -0.0221 